<?xml version="1.0"?>
<opencv_storage>
<DigitOCR type_id="opencv-ml-ann-mlp">
  <layer_sizes type_id="opencv-matrix">
    <rows>1</rows>
    <cols>3</cols>
    <dt>i</dt>
    <data>
      49 16 2</data></layer_sizes>
  <activation_function>SIGMOID_SYM</activation_function>
  <f_param1>5.9999999999999998e-001</f_param1>
  <f_param2>1.</f_param2>
  <min_val>-9.4999999999999996e-001</min_val>
  <max_val>9.4999999999999996e-001</max_val>
  <min_val1>-9.7999999999999998e-001</min_val1>
  <max_val1>9.7999999999999998e-001</max_val1>
  <training_params>
    <train_method>BACKPROP</train_method>
    <dw_scale>1.0000000000000001e-001</dw_scale>
    <moment_scale>1.0000000000000001e-001</moment_scale>
    <term_criteria><epsilon>9.9999999747524271e-007</epsilon>
      <iterations>1000</iterations></term_criteria></training_params>
  <input_scale>
    2.0986404819062665e-002 -3.0683468170333472e+000
    2.0802086690320413e-002 -3.1137984710614139e+000
    2.0057815980306561e-002 -2.9497124112818089e+000
    1.9175679381381410e-002 -2.6981750429197140e+000
    1.9545588987700032e-002 -2.7792992853435239e+000
    2.0240534487102287e-002 -2.9179503632473791e+000
    1.9918098384676449e-002 -2.9455394248228819e+000
    2.0382509387365310e-002 -2.9738879087992536e+000
    1.9333942647478602e-002 -2.7355120703859583e+000
    1.7597857306402530e-002 -2.3041920422578945e+000
    1.6903789547223776e-002 -2.0826551527204069e+000
    1.7970093095006620e-002 -2.3382224691556126e+000
    1.9755062755044885e-002 -2.7357598293587779e+000
    2.0603122357245901e-002 -3.0205937073005673e+000
    1.9238037086618115e-002 -2.7105778090156032e+000
    1.6833595720150019e-002 -2.1035404986382482e+000
    1.5055882424633196e-002 -1.6964925452354480e+000
    1.5549783621740924e-002 -1.7966363873560944e+000
    1.6779134042052564e-002 -2.0601313294834718e+000
    1.8563156199259859e-002 -2.4826404737522592e+000
    2.0345344225719358e-002 -2.9901863742988746e+000
    1.8326196905372221e-002 -2.5316238842446221e+000
    1.5780784037705838e-002 -1.8232702297799206e+000
    1.4940167774917275e-002 -1.6513404659115860e+000
    1.5561213773992158e-002 -1.7807898623852878e+000
    1.6900532443982624e-002 -2.0604816405637036e+000
    1.8178748921772635e-002 -2.3858799296618320e+000
    1.9410801143985520e-002 -2.7434853317954766e+000
    1.8799461313938209e-002 -2.6875870459200204e+000
    1.6617675806267010e-002 -2.0809942845079354e+000
    1.5348146585240722e-002 -1.7502349081048174e+000
    1.5906184570939279e-002 -1.8512308192455451e+000
    1.7023867880111003e-002 -2.0828490310256806e+000
    1.8221312799344504e-002 -2.3964592780262448e+000
    1.9498557668155253e-002 -2.7259122399850924e+000
    1.9493986527920382e-002 -2.8548631088860486e+000
    1.8473600613980883e-002 -2.5425196802316608e+000
    1.7648155824953660e-002 -2.2682590596940444e+000
    1.7324861680424249e-002 -2.1666558333575408e+000
    1.7706422209684332e-002 -2.2804737586857140e+000
    1.8870285275384657e-002 -2.6106133098952977e+000
    1.9835513553176028e-002 -2.8553257054304995e+000
    1.9252373152347863e-002 -2.8020767159598678e+000
    1.8937018397115916e-002 -2.6908087920286272e+000
    1.9044750961777809e-002 -2.6807011914277501e+000
    1.9047944292812733e-002 -2.6825064039127340e+000
    1.9535103853209893e-002 -2.8170871115294354e+000
    1.9717870308395138e-002 -2.8816860496614347e+000
    1.8802931450860531e-002 -2.7286332338191843e+000</input_scale>
  <output_scale>
    5.2631578947368418e-001 4.9999999999999994e-001
    5.2631578947368418e-001 4.9999999999999994e-001</output_scale>
  <inv_output_scale>
    1.8999999999999999e+000 -9.4999999999999996e-001
    1.8999999999999999e+000 -9.4999999999999996e-001</inv_output_scale>
  <weights>
    <_>
      -1.2108912443737772e-002 -5.1623409636537484e-002
      -1.7144958278392414e-001 -2.4396386167042931e-002
      8.7861122424676852e-001 -9.7703618699506078e-001
      -1.0556796631636502e-001 5.7838400400044870e-002
      8.9193049544644099e-001 8.0385283262195573e-002
      2.8475088339804302e-002 -3.0350088013534476e-002
      -1.6872470904163525e-001 -6.7699308598182739e-002
      2.0310711477247059e-001 -3.6072941326470104e-001
      3.2714026488007870e+000 -3.1663202008167796e-001
      -5.3616819606014243e-001 -2.7921856001717985e-002
      6.4520951813704175e-001 -1.0577252962290995e+000
      -3.6366421852895880e-001 -5.3872138727192993e-002
      1.0017675154568431e+000 4.0590037232082771e-001
      2.1392241465636222e-001 1.0827571444117791e-001
      -5.5457615605773380e-001 -1.8332373937198576e-001
      1.4227923594660963e-001 -8.6326471332297505e-001
      -2.4796749487487668e+000 1.6784512666024806e-001
      3.6926316669412368e-001 4.3703315232377762e-002
      -9.9531973404326002e-001 9.0714436303187729e-001
      2.6165879839019635e-001 6.2966330368862719e-002
      -7.9654502577728892e-001 -2.4635017246410099e-001
      -1.4410828330226191e-001 -6.0822616564804755e-002
      3.5211137144471905e-001 1.9473671536681975e-001
      -3.6703332621601981e-001 6.3590631952870791e-001
      5.6022713187963618e+000 -4.8738832325920439e-001
      -9.0560501461448473e-001 -6.7135408366406607e-002
      8.6882575277079610e-001 -1.2097135886627486e+000
      -4.8895688722709629e-001 -6.7732017166626135e-002
      1.0830676332309261e+000 6.0476099879076872e-001
      3.1118433685199248e-001 1.3272324843454206e-001
      -8.6593816094783660e-001 -1.6352951126088630e-001
      1.4029405284223845e-001 -1.2599423273635830e+000
      -2.5423003876850862e-002 -6.6540817429895796e-003
      -9.7101282608465220e-002 -3.4470419656279748e-003
      1.2960493252207511e-001 -4.8267453393200238e-002
      -1.7202279365324492e-003 4.6115099993169394e-002
      4.7428036882270846e-002 5.0576987955263518e-002
      3.7548365602002781e-002 -3.7637656947461857e-002
      -6.4782877294859348e-002 5.8370023702053860e-002
      -2.8359021679008917e-001 -1.2463453892101460e-001
      -3.8242509463664085e+000 2.2644057184094254e-001
      3.4843524413049637e-001 4.5782586204985640e-002
      -2.4660690556650755e-001 3.7004961465278324e-001
      2.4842664657644634e-001 6.4513295095866022e-002
      -3.3444981378983152e-001 -2.8551706763826962e-001
      -1.8732303826768076e-001 -4.5337056029660636e-002
      3.9481253183553899e-001 1.9906968801465613e-001
      -2.8827284362261885e-001 5.3296030768934710e-001
      -2.6240386003190368e+000 1.3105393607845756e-001
      1.7684854424965832e-001 5.6419844065043613e-002
      -7.1018301941286277e-002 5.9818444893335605e-002
      1.3288745814758410e-001 5.0053056129354026e-002
      -3.7520643632125907e-002 -1.0862471547419000e-001
      -8.3140585878188566e-002 -4.0406887136941891e-002
      1.5939898267299765e-001 1.0173303920359673e-001
      -1.2704982045042307e-001 2.5249429480437835e-001
      -1.2271539271733811e+000 2.3366315310771962e-002
      1.3969863936192006e-001 3.4288313258207209e-003
      3.5067153210628410e-001 -3.7237237613234592e-001
      4.5114752724485195e-002 2.1073804544503000e-002
      2.9803025946860334e-001 -7.2220976218844268e-002
      -5.1503842237759390e-002 -6.0625920793403988e-002
      1.1318305344000748e-001 2.2979209857130541e-002
      -8.0545963987269209e-002 1.2959680377740523e-001
      3.3093924925240414e+000 -1.6166675847045461e-001
      -3.1063289166523855e-001 3.8688650478409439e-003
      -2.1794338180330686e-001 4.0576059031663225e-002
      -1.7284296765296292e-001 -7.3466996476709165e-002
      -1.1967506366274205e-002 2.3069904201513541e-001
      1.7434330756972652e-001 2.1105717066191319e-002
      -2.9819987528106984e-001 7.8400003736672063e-003
      -2.8790636666571590e-001 -3.8000177170681437e-001
      4.3584797786956759e+000 -3.2232449455547990e-001
      -5.5185390120248179e-001 -6.3302167228322354e-002
      -1.4515979651893893e-001 2.9533210699210628e-002
      -3.3423961154253562e-001 -7.2004806718517000e-002
      1.4947460702435274e-002 4.3733628431301441e-001
      2.4156692851793646e-001 1.0978532532321959e-001
      -5.6199510773964179e-001 -1.1855815388282703e-001
      -9.0318533950794991e-002 -6.2281676977755784e-001
      1.8213544980616225e-001 -3.0276470215425864e-002
      -1.4659791837738176e-002 -3.5133894636096306e-002
      -3.6574096821242942e-002 4.3230917936415585e-002
      3.6087707520740198e-002 -1.8764083961673884e-002
      -8.0974025439773209e-002 2.7295079770300722e-002
      -2.1035165760932527e-002 -1.2092484909462312e-002
      -1.9334941479715931e-002 9.2666053174115900e-002
      -1.1773630256869108e-001 -2.0521631926811203e-002
      3.7325356132134324e+000 -3.4361816233364118e-001
      -6.0040691585393291e-001 -5.9323243699706367e-002
      2.0060525854112779e-001 -5.0870048942257040e-001
      -3.4034833893131916e-001 -8.4931503207556672e-002
      4.9797697569748461e-001 4.5204537075026696e-001
      2.3837028295014134e-001 9.0113690901522658e-002
      -6.0368124057463302e-001 -8.3641094968888496e-002
      8.5680293710784870e-003 -7.7929091586235366e-001
      2.3836075448691800e+000 -2.4866682335578094e-001
      -5.1080324083764184e-001 1.4339175805022508e-002
      6.4522397011894972e-001 -6.8424985518416714e-001
      -2.6649951225780361e-001 2.5318089066956365e-003
      6.7918003256483794e-001 3.5162128216260191e-001
      1.7915016752450119e-001 6.4821138570288026e-002
      -4.5951319343215929e-001 -7.8344379386953475e-002
      1.1448464535865478e-001 -6.8927490115836387e-001
      -1.1282316654872671e+000 -1.8883866973614116e-002
      -7.1776784503261290e-002 3.4156789748021416e-002
      8.0464632799153191e-001 -6.0823725226276693e-001
      -6.3026323359445427e-002 4.0681933048890118e-002
      5.9250835924182388e-001 5.3482996373750764e-002
      -1.0604955952925221e-002 -2.2292208685208984e-002
      -1.0781224147685910e-001 4.2972177486130782e-002
      -2.5250772476097874e-002 -2.4998723695814426e-001
      2.3551770989856013e+000 -1.9020285080011101e-001
      -3.3015347973505038e-001 -4.5199818270777424e-002
      -1.8235586263447401e-002 -2.0212270585574854e-001
      -2.4456203753695283e-001 -3.0975811388638384e-002
      1.9875884965273752e-001 2.6910221789385491e-001
      1.4848352073968304e-001 2.4343519186672876e-002
      -3.4989481323449956e-001 -6.8588363165755076e-002
      -2.1352067274360419e-002 -4.1614144730746788e-001
      -2.0301177290726273e+000 1.4731443804863653e-001
      4.1816541125180018e-001 -8.1350782584057903e-003
      -9.5409169665737104e-001 8.6317664525755411e-001
      3.0507036170046736e-001 2.8628665356266125e-002
      -8.2696896203790260e-001 -2.5174350129910072e-001
      -1.4189240488294694e-001 -7.6449391705268932e-002
      4.2168196764830368e-001 1.6952271396994370e-001
      -3.8345202670626588e-001 6.9792978575466236e-001
      -3.5060959562249776e+000 2.8428414487810511e-001
      5.2691287603182468e-001 7.0755823293271652e-002
      -8.7072400748950129e-001 9.1384949032440965e-001
      3.4925588192979029e-001 3.0013783728546076e-002
      -8.1817296999583822e-001 -3.5744715464649884e-001
      -1.9902538212198917e-001 -9.2191649943848014e-002
      5.5590472041705441e-001 1.6527861054154400e-001
      -3.7796826722774446e-001 8.6850257498768635e-001
      -1.4393493656025853e+000 5.8693364945315539e-002
      1.7464835779040430e-001 -2.4388210965944632e-003
      -4.9545057877561161e-001 4.4749605606360165e-001
      1.4623263369927950e-001 3.7091282082309489e-002
      -4.4473777237940709e-001 -1.0755424720127865e-001
      -8.3669397571077095e-002 -1.6246961575737968e-002
      2.2952397913135517e-001 1.2393943950437847e-001
      -2.4299546457346746e-001 3.8386043194179043e-001
      -1.2367798032718058e+000 4.8208788655543754e-002
      1.4479714754121467e-001 -3.3902588939895568e-002
      -2.4596178373467620e-001 2.8690791346606276e-001
      9.5398429497009010e-002 2.8894720805416486e-002
      -2.9632000467458347e-001 -1.0085339740608112e-001
      -5.8047273400141645e-002 -1.0912921302467467e-002
      1.4007870990615248e-001 1.4222830498963870e-001
      -3.2536327592912945e-001 2.2110640763834433e-001
      -5.0156586024937457e+000 2.9809263634059263e-001
      5.3626305818557218e-001 6.1362293407026980e-002
      -3.3292565833460619e-001 4.4648405574173694e-001
      3.7660619789698491e-001 8.7305093154669708e-002
      -4.5962470910085113e-001 -4.1976006837423258e-001
      -2.1483183157827357e-001 -1.2868150205574352e-001
      5.0198074273387061e-001 2.0261735285444218e-001
      -3.0403546258054809e-001 7.3268755107193806e-001
      -1.2679924673369511e+000 -2.3146387455862890e-002
      -7.6208175773757686e-002 2.6211723400573383e-002
      8.3175675756537037e-001 -6.9657703053592479e-001
      -2.3978095972853414e-002 8.7517521494246145e-002
      5.5775758047486934e-001 3.7129282902641520e-003
      7.7970627013161670e-003 6.2136037130460491e-003
      -5.1912349481857384e-002 6.2327813174152098e-002
      -9.9497591413150968e-002 -1.3604284904329259e-001
      4.2439284203526402e+000 -3.7142300300862846e-001
      -5.9700582843111583e-001 -5.2607746034141346e-002
      2.5071520955861543e-001 -1.4769059647070726e-001
      -4.1791234267176480e-001 -8.2430554362159042e-002
      1.5804296120730843e-001 4.5118327147670773e-001
      2.3410985888436811e-001 7.8793081505171780e-002
      -6.3520139286155997e-001 -1.1465118753828209e-001
      -8.8952988548983598e-003 -7.1651852519406922e-001
      -7.4946881986823666e-001 6.7204077506906795e-002
      2.0086746816391432e-001 1.6932086463042520e-002
      -9.5347188671640903e-001 9.6740590287624806e-001
      9.4528979523374135e-002 -2.3107220366883384e-003
      -8.8678737255099904e-001 -1.3541711375748350e-001
      -5.6811056911456263e-002 -4.7483578670206826e-003
      2.3258061726405829e-001 7.3912050110321148e-002
      -3.9625053329547466e-001 4.9456241330825518e-001
      -2.9357396426918765e+000 2.6477832990636052e-001
      4.7079328227611328e-001 -8.1057227651419126e-003
      -9.9098444038954647e-001 7.8467190653343721e-001
      3.0536687777956073e-001 6.5120724569140268e-002
      -7.3569325376040640e-001 -3.4104051600457103e-001
      -1.9691625291600248e-001 -5.2051448045799621e-002
      4.5657660047334336e-001 1.7659746768032727e-001
      -3.7289442035418774e-001 7.2841597865783492e-001
      -3.7996975502712438e+000 2.9089957020902640e-001
      5.3854278667892441e-001 1.2790853102143156e-002
      -9.7476063361847176e-001 9.8193844402191788e-001
      4.2558139551898599e-001 5.1944410779533143e-002
      -9.4543278618343907e-001 -3.6708919594896472e-001
      -1.9869802304990794e-001 -5.7563858538451002e-002
      5.3072989502499690e-001 2.6584987766369178e-001
      -4.7688292894402590e-001 9.3919188180980961e-001
      -4.6028959338848918e-001 -1.0316016105733735e-002
      3.3088959679981579e-002 -5.0169064012610023e-002
      -3.0847989933791792e-001 1.0596838264592616e-001
      7.5324718220698861e-002 3.0452638059417773e-002
      -8.5948967681183611e-002 -3.6108828907341621e-002
      -3.5733815255023185e-002 -1.0676226379236436e-002
      9.4620890816731070e-004 1.0095892966170389e-001
      -2.5225144245524600e-001 5.6766984167805373e-002
      -3.9254897787604115e+000 1.8808455831075177e-001
      2.8300494469949800e-001 2.9445803505399434e-002
      3.8601048691532847e-001 -2.5263429518139474e-001
      2.6063754785516485e-001 8.8313673266585152e-002
      2.4367315330084061e-001 -2.2068518725454425e-001
      -1.8663189030152144e-001 -1.1127946254077085e-001
      2.7874048427672171e-001 1.3417984545109626e-001
      -2.2261726924530775e-001 3.0749048134101492e-001
      -1.4582110291729626e+000 7.8676989336170424e-003
      -1.0806110992134622e-001 -1.2255496341156807e-002
      8.8975804118207524e-001 -5.1122547729816281e-001
      -1.2942092209236290e-002 5.2567165377807833e-002
      4.6758205769573008e-001 5.2853186295944446e-002
      2.9016095460100446e-002 -2.7245662563658072e-002
      -9.6171702713981802e-002 8.4457157545760317e-002
      -1.1213021084868109e-001 -2.2462679162054933e-001
      -4.1267446831014905e+000 2.4825205664716724e-001
      4.4822150680617029e-001 7.0552764735555829e-002
      -5.9357136469733462e-001 5.5974996109623398e-001
      2.7571976846074819e-001 8.5673852908478051e-002
      -5.2423101519415771e-001 -3.3009171073097909e-001
      -1.9968673261269534e-001 -7.3453254261224399e-002
      4.6120801799988631e-001 1.4736146865626290e-001
      -2.6884075558320658e-001 6.9528269092208739e-001
      -1.6948032488646938e+000 3.5226410960988226e-002
      1.8104903225173641e-001 4.7220916876155358e-002
      -2.7714415468942494e-001 2.5897064483848231e-001
      1.3032301321939865e-001 2.9200379638665952e-002
      -2.2191997533838206e-001 -9.3494461760951705e-002
      -6.8904900800534491e-002 -2.3764573846145037e-002
      2.1468457400565991e-001 6.7299850753378215e-002
      -2.0376950100066116e-001 3.3846196901783004e-001
      -2.9328217805892218e+000 1.7394260058380839e-001
      4.1042906130979773e-001 9.4696341062450659e-003
      -7.8764371173095893e-001 7.0906970633581012e-001
      2.2255215152102420e-001 5.0285768493424678e-002
      -7.0569232685204974e-001 -2.8156200677806426e-001
      -1.9024381425829553e-001 -4.4837673888715582e-002
      3.7856136955327968e-001 1.6659673116428061e-001
      -2.8561415145916574e-001 6.5775069599368663e-001
      -2.1135260168286127e-001 -3.3739169830374352e-002
      4.3670611466984028e-003 -5.3113812060358152e-002
      -3.7593355323967637e-001 1.1005068260866266e-001
      2.6151901621205571e-002 8.5916026421473338e-003
      -9.8130337164608131e-002 1.0705308628423329e-002
      -4.3084152869657472e-002 9.7250910060188850e-003
      -2.1364177043271614e-002 7.9756476720058478e-002
      -1.2841348378920289e-001 4.3646261597808496e-002
      -4.1182106667647007e+000 2.3497254826594394e-001
      3.9896020570952545e-001 4.0072720176016013e-002
      -2.3819413282494356e-001 1.0705069429766989e-001
      2.9099227873896255e-001 1.5716519120826802e-002
      -9.5186642818046036e-002 -2.9813421268675089e-001
      -1.8133315990593399e-001 -6.7010032303828945e-002
      3.8298303253657939e-001 1.9105288806967333e-001
      -1.2259686644218244e-001 4.6357421959915657e-001
      -5.0683167945838319e+000 2.8122542438877557e-001
      4.8488139043254314e-001 7.1099568852453082e-002
      -1.7752802695403005e-001 3.8581815323738727e-001
      3.0489283179383031e-001 8.0981899465373361e-002
      -3.1770432789051417e-001 -3.2654383597125708e-001
      -2.0790746679125161e-001 -1.0267607295356329e-001
      4.7161989837906043e-001 1.9392286191827995e-001
      -2.4971140037724290e-001 6.0023570043015340e-001
      -3.3755153087379219e+000 9.6928230182551645e-002
      1.1064344571816467e-001 1.3297405381279225e-002
      8.1472837356784109e-002 4.0469997761715332e-001
      1.7692526356081786e-001 -1.2495146911033254e-002
      -3.7451872059314228e-001 -1.1646374661025405e-001
      -1.6606609054912796e-001 -7.7706642781887811e-002
      1.8222288732301645e-001 1.8387882496304955e-001
      -3.3979726243379460e-001 3.0310125880753053e-001
      -7.1742753117911062e-001 -3.0277079821985128e-002
      -6.8411856831487497e-002 2.3053051456987567e-002
      -1.4637249403478883e-001 -8.2533671354587029e-002
      -2.3232026940206724e-002 -6.2085627587227304e-003
      4.9958531582901783e-002 8.9937683009791450e-002
      -2.0199100282335381e-003 -4.0960135333706287e-002
      -4.9790665084663475e-002 2.0552130843443507e-003
      -8.4386969042940976e-002 -4.2123968692483096e-002
      -1.8202541654753792e+000 3.9268165601262305e-002
      9.3123341697706988e-002 2.8385740727718756e-002
      -1.9578258698978010e-001 9.4965057067711217e-002
      7.5021733044243033e-002 2.1141185754325394e-002
      -7.0737741147540403e-002 -3.8815263160457678e-002
      -4.7388828237483582e-002 -4.6483988887471565e-002
      9.9395010274808876e-002 3.3150005580490652e-002
      -1.6848846422130356e-001 1.3011329065827903e-001
      -2.4325929047800208e+000 1.0656430448991250e-001
      1.8899720208857507e-001 6.0295078551731551e-002
      -1.1407638822623013e-001 6.4816486728003914e-002
      9.6622576325272991e-002 6.4705544093100337e-002
      -7.1887588727556392e-002 -1.0729745653788192e-001
      -7.5107874088187324e-002 -9.2014469325897907e-002
      2.1467702045783982e-001 8.5410691564867178e-002
      -9.0713360139692056e-002 3.1373665873355638e-001
      -5.5860520725634126e+000 3.5917995748777420e-001
      6.3776186765642129e-001 4.6510314759413335e-002
      -7.6751708539846253e-001 6.5392856465083471e-001
      3.6525363504152331e-001 9.7166159796692297e-002
      -6.2108056885279161e-001 -4.6210140259323457e-001
      -2.9785457463476694e-001 -1.3019472134347740e-001
      5.6380922828812119e-001 1.6716689217427730e-001
      -1.1019144674777015e-001 8.3239197061789560e-001
      -1.6733562679095233e+000 -3.7509083969992705e-003
      2.1982099249696116e-002 7.9212570766508238e-003
      7.2891906349497793e-001 -7.0375117838969248e-001
      -8.0979697563180360e-003 1.6735648284688282e-002
      5.6876692399214790e-001 -1.7347680032586275e-002
      -1.9963028469314779e-002 -4.6341845265725871e-002
      -1.4290642844815554e-002 2.7264250347472846e-002
      1.4789985669716429e-001 -1.7717955422505866e-001
      -1.3645253109771138e+000 -2.4745743719520267e-002
      -1.4217960928522394e-001 5.2379325806172612e-002
      5.8242844898135104e-001 -3.2802679537027846e-001
      -2.3441543044328068e-002 1.3997836243246854e-003
      2.4850387672589178e-001 5.2183903465124207e-002
      3.1822936605060907e-002 -5.3419140627150162e-002
      -9.0881853690895978e-002 5.9230686769048774e-002
      -1.6024946895080902e-001 -2.4829438502558368e-001
      -7.6911029427109345e-001 -4.8675851545242815e-002
      -1.6557417832495377e-001 7.1116532006046031e-003
      3.2607877463868828e-001 -1.3839043921462643e-001
      -7.8663328456634693e-002 -2.1024386099068062e-002
      1.4689965006144615e-001 1.2219436031095270e-001
      6.2601848076180119e-002 2.3059222289650901e-002
      -1.8138147443448244e-001 6.9387548714821791e-003
      -1.7218229458763076e-001 -2.3861226840225366e-001
      -5.4710629716230552e-001 -4.1843708886896397e-002
      -1.2742288664139176e-001 1.5101266827363461e-002
      4.5269005882233848e-001 -3.4199238571703938e-001
      -9.0018386784667420e-002 3.6356948343535568e-002
      2.5891916195214004e-001 3.6321468066625791e-002
      -7.6968580950972469e-003 -2.4374712014983750e-002
      -4.2168375898013880e-002 -3.1731945798412271e-002
      1.9209561169316373e-002 -1.1704079378581864e-001
      4.3487865670230921e+000 -3.9416996932287429e-001
      -8.4901606912849059e-001 -8.0110023207372122e-002
      1.1917621801227636e+000 -1.2965837660153838e+000
      -5.2663058651462902e-001 -4.9431799135273881e-002
      1.2711538705364449e+000 5.9814035923840447e-001
      3.6036019356912063e-001 6.5446265784608507e-002
      -8.8529445047940769e-001 -2.5568250144358795e-001
      4.1510604756534286e-001 -1.2414174056862943e+000
      7.7411285824760445e-001 -1.4569887794164146e-001
      -3.0003807455778470e-001 -7.1554721905941537e-003
      7.1742150341712119e-001 -6.6382571714224015e-001
      -2.0845932632237452e-001 1.2510701563282680e-002
      6.3415401799168525e-001 2.5924479017145535e-001
      1.4492619187869374e-001 4.6350531349930481e-002
      -3.3270590698886821e-001 -1.8727289206383023e-002
      3.0747058835260296e-002 -4.7583001203772068e-001
      9.6502677531476033e-001 -1.8281071312058680e-001
      -3.9436514081164364e-001 -1.5690770813505086e-002
      1.0598335115877153e+000 -8.0717457962429673e-001
      -2.2740711306960676e-001 -2.1767203145201197e-002
      7.4439898936849647e-001 2.5348529053595342e-001
      1.1957667965181994e-001 4.8353058768647920e-002
      -3.7962745283629129e-001 -6.9475404993368128e-002
      4.0665554837110297e-002 -5.9062388026053680e-001
      -2.3945480113559818e+000 1.1316034983309903e-001
      1.0890447609325728e-001 3.2855221390188864e-002
      4.1825426122595821e-001 8.6268750720220486e-002
      6.6412301225546297e-002 2.8957164420329324e-002
      -8.0695179368492520e-002 -8.8862504043516269e-002
      -4.3696300334915381e-002 -5.5663113374054531e-002
      5.0005860858660350e-002 1.0074734687667770e-001
      -2.3658007311971610e-001 8.3610458083424460e-002
      -1.5430124266355780e+000 8.0242167244734108e-003
      -4.5479290239578259e-002 1.9372409140996159e-003
      5.7890201675221109e-001 -1.1763905802799619e-001
      -2.5793889112245540e-002 -3.7480845997324612e-003
      1.2945568082898859e-001 4.2544108701431133e-002
      8.8583868460703919e-003 2.4286233524774686e-003
      -1.0331479428094789e-001 7.1114829224867213e-002
      -1.7061434417340715e-001 -1.8368001736695577e-001
      -5.8436740990623335e+000 3.2855797577352758e-001
      5.6550000485295460e-001 2.0629077129329636e-002
      -4.2016530818353348e-001 8.6746035345490780e-001
      3.4834652033054420e-001 7.1452632688114304e-002
      -8.3647190763902424e-001 -4.7147510697128980e-001
      -2.7744785884865281e-001 -1.0596990296615857e-001
      5.5189550503275486e-001 2.0046945123238066e-001
      -3.8732502421622261e-001 9.0411268855473192e-001
      -3.3360759124145654e+000 1.2635108413915147e-001
      3.7005997128926554e-001 9.0950429139930108e-002
      5.4857899439207780e-001 -2.4743702542531851e-001
      2.0535694880190022e-001 1.2516953177515372e-001
      1.7329079967794525e-001 -3.2732406485798965e-001
      -1.4325824869218762e-001 -3.3808926128581801e-002
      4.3366767284216035e-001 -2.9039949863462602e-002
      3.3440373478530011e-001 5.9217727551268873e-001</_>
    <_>
      -1.8652369459443241e+000 2.1180971834609132e+000
      1.6842906622251157e+000 -1.0989516254901868e-001
      2.0534157525936809e+000 -1.2122126335533621e+000
      -2.8837756446859852e-001 -5.5595083412067214e-001
      -2.8506774850918442e+000 2.6468172711059577e+000
      2.3002464105060643e+000 -2.6236620796610421e+000
      3.5266121027237785e-001 -1.7184421787610418e+000
      -5.8820929933211419e-001 -9.8509001444411348e-001
      -2.1207198371299696e+000 2.3871260856787071e+000
      -7.6281373277326758e-001 1.5496286012493823e+000
      -6.1349638549502650e-001 7.2373542938517588e-001
      -4.2180041789249462e-001 1.4006058278045869e-001
      1.4493803452345153e+000 -1.7612029498806021e+000
      9.4185285683350994e-001 -2.2249184782232106e-001
      -1.3448067619297952e+000 1.0928865708308835e+000
      2.4570160983502358e+000 -2.1524359128547772e+000
      1.6422036933535951e+000 -1.6264341233196740e+000</_></weights></DigitOCR>
</opencv_storage>
