<?xml version="1.0"?>
<opencv_storage>
<DigitOCR type_id="opencv-ml-ann-mlp">
  <layer_sizes type_id="opencv-matrix">
    <rows>1</rows>
    <cols>3</cols>
    <dt>i</dt>
    <data>
      49 16 2</data></layer_sizes>
  <activation_function>SIGMOID_SYM</activation_function>
  <f_param1>5.9999999999999998e-001</f_param1>
  <f_param2>1.</f_param2>
  <min_val>-9.4999999999999996e-001</min_val>
  <max_val>9.4999999999999996e-001</max_val>
  <min_val1>-9.7999999999999998e-001</min_val1>
  <max_val1>9.7999999999999998e-001</max_val1>
  <training_params>
    <train_method>BACKPROP</train_method>
    <dw_scale>1.0000000000000001e-001</dw_scale>
    <moment_scale>1.0000000000000001e-001</moment_scale>
    <term_criteria><epsilon>9.9999999747524271e-007</epsilon>
      <iterations>1000</iterations></term_criteria></training_params>
  <input_scale>
    2.0986404819062665e-002 -3.0683468170333472e+000
    2.0802086690320413e-002 -3.1137984710614139e+000
    2.0057815980306561e-002 -2.9497124112818089e+000
    1.9175679381381410e-002 -2.6981750429197140e+000
    1.9545588987700032e-002 -2.7792992853435239e+000
    2.0240534487102287e-002 -2.9179503632473791e+000
    1.9918098384676449e-002 -2.9455394248228819e+000
    2.0382509387365310e-002 -2.9738879087992536e+000
    1.9333942647478602e-002 -2.7355120703859583e+000
    1.7597857306402530e-002 -2.3041920422578945e+000
    1.6903789547223776e-002 -2.0826551527204069e+000
    1.7970093095006620e-002 -2.3382224691556126e+000
    1.9755062755044885e-002 -2.7357598293587779e+000
    2.0603122357245901e-002 -3.0205937073005673e+000
    1.9238037086618115e-002 -2.7105778090156032e+000
    1.6833595720150019e-002 -2.1035404986382482e+000
    1.5055882424633196e-002 -1.6964925452354480e+000
    1.5549783621740924e-002 -1.7966363873560944e+000
    1.6779134042052564e-002 -2.0601313294834718e+000
    1.8563156199259859e-002 -2.4826404737522592e+000
    2.0345344225719358e-002 -2.9901863742988746e+000
    1.8326196905372221e-002 -2.5316238842446221e+000
    1.5780784037705838e-002 -1.8232702297799206e+000
    1.4940167774917275e-002 -1.6513404659115860e+000
    1.5561213773992158e-002 -1.7807898623852878e+000
    1.6900532443982624e-002 -2.0604816405637036e+000
    1.8178748921772635e-002 -2.3858799296618320e+000
    1.9410801143985520e-002 -2.7434853317954766e+000
    1.8799461313938209e-002 -2.6875870459200204e+000
    1.6617675806267010e-002 -2.0809942845079354e+000
    1.5348146585240722e-002 -1.7502349081048174e+000
    1.5906184570939279e-002 -1.8512308192455451e+000
    1.7023867880111003e-002 -2.0828490310256806e+000
    1.8221312799344504e-002 -2.3964592780262448e+000
    1.9498557668155253e-002 -2.7259122399850924e+000
    1.9493986527920382e-002 -2.8548631088860486e+000
    1.8473600613980883e-002 -2.5425196802316608e+000
    1.7648155824953660e-002 -2.2682590596940444e+000
    1.7324861680424249e-002 -2.1666558333575408e+000
    1.7706422209684332e-002 -2.2804737586857140e+000
    1.8870285275384657e-002 -2.6106133098952977e+000
    1.9835513553176028e-002 -2.8553257054304995e+000
    1.9252373152347863e-002 -2.8020767159598678e+000
    1.8937018397115916e-002 -2.6908087920286272e+000
    1.9044750961777809e-002 -2.6807011914277501e+000
    1.9047944292812733e-002 -2.6825064039127340e+000
    1.9535103853209893e-002 -2.8170871115294354e+000
    1.9717870308395138e-002 -2.8816860496614347e+000
    1.8802931450860531e-002 -2.7286332338191843e+000</input_scale>
  <output_scale>
    5.2631578947368418e-001 4.9999999999999994e-001
    5.2631578947368418e-001 4.9999999999999994e-001</output_scale>
  <inv_output_scale>
    1.8999999999999999e+000 -9.4999999999999996e-001
    1.8999999999999999e+000 -9.4999999999999996e-001</inv_output_scale>
  <weights>
    <_>
      3.3452582218070509e-001 -1.3130501548785700e-001
      1.2531672949448130e-002 -3.0348450747982247e-001
      8.8444527699567743e-001 -3.1222472440965920e-001
      8.8468964659465532e-001 -3.9857595916032253e-002
      7.8618303921808486e-001 1.4100842598207133e-001
      1.1341228397103766e-001 -8.2032030530434560e-003
      1.9940671219833536e-001 5.8535332016339273e-002
      6.7947457960559995e-002 -1.3104090190809076e-001
      -4.5225720825923665e-001 -5.3084823092018141e-001
      1.6641497700789712e-001 -2.3123487888722694e-001
      9.6550365396802040e-001 -3.6979447056778969e-001
      6.5453391870108191e-001 -5.2240023278267135e-002
      1.1054414753345814e+000 1.2312371854348474e-001
      3.6678387283202418e-001 -1.1367594222540071e-001
      7.2545886592287989e-001 -4.0916899455173752e-002
      1.8141097587006197e-001 -5.6736368367272394e-001
      6.6974703277866043e-001 3.0234228480474745e-001
      -1.3874894877846064e-001 5.0141064901258214e-001
      -7.9766096988114421e-001 4.8455832134633015e-001
      -1.1554940165278031e+000 -5.6322621021824920e-002
      -8.9167816355570806e-001 -2.9091653783868138e-001
      -1.8992732487450037e-001 9.1098771029946110e-002
      -5.0864690648746569e-001 6.6416954667866832e-002
      -2.6391706977284707e-001 3.4137514417549486e-001
      -1.2996706275967038e+000 -9.7572853633053169e-001
      3.5779272620391617e-001 -2.3125660509846896e-001
      1.1202108478331614e+000 -4.5899396389391889e-001
      1.0107559304157654e+000 -1.9684651295852430e-002
      1.4145382635591870e+000 2.0547273545339920e-001
      6.9404801980009534e-001 -2.1142999198938564e-001
      1.2412332349612494e+000 -4.0929880503458062e-002
      3.3212647096913328e-001 -9.8579853041635401e-001
      1.5476778784342404e-001 -1.1263623618613913e-001
      5.0636720846922230e-002 3.0178512855591288e-001
      9.5570002961185507e-002 2.5388620725765904e-001
      1.6412425151465804e-001 -2.5579540845136663e-003
      5.8242036324418024e-002 -1.6248460817395763e-001
      7.1316020627058038e-002 -6.4101536080957110e-003
      7.5934758137046532e-002 -1.2866279424424150e-002
      -9.0841986625852703e-002 -1.1042568409696257e-001
      1.0601897890653580e+000 3.4151151123985579e-001
      -1.7400488960741362e-001 3.0053481895753620e-001
      -2.8796795704430839e-001 3.3945154936996930e-001
      -3.4423120298268467e-001 -1.9669171369764499e-002
      -4.0669816336739317e-001 -2.2462771704237133e-001
      -2.4963326304229141e-001 9.9225977304659069e-002
      -4.1316897246817574e-001 9.2320675786481704e-002
      -2.2706754021816755e-001 3.1127397346939717e-001
      7.6546289191243999e-001 2.3578925532641948e-001
      -9.9953860302780806e-002 1.7989961974735205e-001
      -2.6980666872568254e-002 2.1251804542677363e-001
      -1.9069521628898303e-001 -2.2264399869688430e-002
      -1.4823056851513311e-001 -8.0004180750762849e-002
      -1.4137531616650001e-001 1.0862029807704322e-001
      -2.0350324541395645e-001 6.8391238481343472e-002
      -8.9626182265901258e-002 2.1930122542044353e-001
      4.7262139402804859e-001 -8.9700695718301481e-003
      -4.0492173264963231e-002 3.5706270978930871e-003
      3.7122153446733935e-001 -9.8311104638678398e-002
      4.2087545485747946e-001 -3.9434464128777422e-002
      2.9015382354916464e-001 -3.1776264232465760e-002
      2.0705641396987419e-002 -2.3953748380484679e-002
      -9.5798416904860961e-002 2.7217287433329698e-002
      2.8487999813146161e-002 5.3261406827137509e-002
      -9.4798073218912904e-001 -3.8865011246158232e-001
      1.5228086499521618e-001 2.1703200214105900e-001
      -3.4589846979047864e-002 1.0512772554207005e-001
      -1.6511813023308042e-001 -2.6775730624084525e-002
      1.5891188456861910e-001 -1.0157463553260743e-001
      3.5090306564680823e-001 -8.9709444202915559e-002
      4.1092762265091576e-001 -3.7105762492092249e-002
      7.1162174993122801e-002 -4.1953940432795284e-001
      -1.4474527193227371e+000 -7.1742534154217230e-001
      2.4370953354344260e-001 7.4311286870084887e-003
      -1.6871329077735746e-002 -1.0739953484789241e-001
      -1.2414649170483436e-001 5.1536459809362938e-002
      2.1134030794325082e-001 -5.0760278930184546e-003
      4.9257336729005946e-001 -1.7153014064970518e-001
      7.7268092227433860e-001 -1.1734266129045813e-001
      1.8877369854670964e-001 -7.1506958835330348e-001
      -2.3579805178771440e-001 -1.4539195034811170e-001
      1.6564771720751444e-002 1.0576561548034090e-001
      -7.2640231068935052e-002 9.1410652394070965e-002
      -3.1836203044641180e-002 -4.7481671152784143e-002
      -6.2227244199291376e-002 -8.4741825355956840e-002
      1.4890225813538208e-001 -8.6273190982822351e-002
      1.3277082186015798e-001 -3.2969541450223308e-002
      -4.5217230777959222e-002 -1.8636965839455569e-001
      -1.1931071000075411e+000 -6.8553978526518755e-001
      2.3797264751374236e-001 -1.4579914582203690e-001
      5.6879008125498443e-001 -1.6839417957990560e-001
      5.6842996782685347e-002 -2.4828823714782060e-002
      6.6993993583822364e-001 1.7768552396029069e-001
      5.3618370772281543e-001 -1.3607330587693428e-001
      7.5124938730174851e-001 -6.9848256631605349e-002
      2.0384450260961928e-001 -7.3660606649684679e-001
      -4.9861348851531162e-001 -5.3377326362966337e-001
      1.5695663215385683e-001 -1.2841573973289491e-001
      6.8053538281947645e-001 -1.9347407148174370e-001
      6.8474226267646510e-001 -3.0832684236984042e-003
      7.4395168646421095e-001 1.0699000682966117e-001
      4.0644032640534017e-001 -1.1015112261988587e-001
      6.6461995001475760e-001 -8.1053568686897545e-002
      1.4541386665431288e-001 -6.2755093192754074e-001
      4.6231168319351124e-001 -1.6435301056627036e-001
      1.5640806873897815e-002 3.2392822604829917e-002
      6.5455799956190430e-001 -1.0525817302386047e-002
      8.8923346293574479e-001 -1.9170762839681423e-002
      5.6773378428927634e-001 1.4426749454611820e-002
      1.1508343259605794e-001 -4.0051073916366670e-002
      2.5039132923136376e-001 3.3342327659869754e-002
      3.0928555698970465e-002 -1.5668324418459242e-001
      -5.5127960499497219e-001 -3.0430092684273025e-001
      1.1687215033823074e-001 1.2091132709586535e-002
      2.0180746351443146e-001 -7.0863117358026986e-002
      -4.1582746932003915e-002 4.0871597608917745e-002
      2.7977491867191201e-001 1.0731737347962400e-002
      2.5492838357292569e-001 -5.5965655368139931e-002
      3.9474254368893752e-001 -6.2895078603112997e-002
      1.3245834316432334e-001 -3.6921275076387811e-001
      1.9400441903227131e-001 3.6737719850086686e-001
      -7.3270269223099399e-002 4.5019215669272977e-001
      -8.9199945793673596e-001 3.9768555804124356e-001
      -1.2429021087866510e+000 -3.7304599430685627e-002
      -9.2761435258803693e-001 -2.4349950856399624e-001
      -1.7904406233939443e-001 8.1615687313827984e-002
      -5.6561978323825279e-001 -4.2972743148061239e-004
      -2.3465762031657106e-001 3.9247858487067516e-001
      5.2295487577880351e-001 5.0085786488857253e-001
      -2.0601608892874376e-001 4.8277531932466611e-001
      -9.0152261220697105e-001 4.9678481594725832e-001
      -1.1075737908200667e+000 -1.7318039946569126e-002
      -1.0378370063092599e+000 -2.7094518731007777e-001
      -2.8846847945208076e-001 1.1873980968211857e-001
      -7.0500635329177108e-001 2.6501521918674560e-002
      -2.6506742897182817e-001 5.1626108282758676e-001
      -3.9647829499920267e-002 8.7029351548642553e-002
      -8.7948617362148280e-003 2.8940870659613155e-001
      -4.5648549437097019e-001 2.8727409336076981e-001
      -7.2128152941057011e-001 1.2175986849557480e-002
      -5.0783702384392937e-001 -1.7868227780632867e-001
      -8.6625800194602032e-002 2.5457365022637433e-002
      -2.5050752530816101e-001 3.6531514211574780e-002
      -1.5404892153743360e-001 1.6914588543800094e-001
      1.7872073849907788e-001 1.0336873143435703e-001
      -4.3147520381049950e-002 3.8525164028470132e-001
      -2.4633456547101323e-001 4.5557959951265214e-001
      -3.8586228347714874e-001 -4.4035060424159771e-002
      -2.6341419455923532e-001 -1.6158125333726353e-001
      -3.8048370405547628e-002 -1.1047104591449260e-002
      -1.3896824588944312e-001 9.9932975215916171e-003
      -1.8661836205604854e-001 1.1801818934476437e-001
      1.2346984174431515e+000 4.8101102714412930e-001
      -1.7591522661046513e-001 4.1234523260603656e-001
      -4.8965524699584312e-001 4.9841828096176821e-001
      -5.1471660148255838e-001 -5.4967452087694019e-002
      -6.2465944593545342e-001 -2.3150069943789561e-001
      -3.5425666051058646e-001 9.0342020302095413e-002
      -6.5339709981546268e-001 5.8709232696074913e-002
      -2.9978549127019838e-001 5.0222604608382027e-001
      4.5288863402245688e-001 -7.2473365083764146e-002
      6.9004836662559504e-003 1.9154218602433201e-002
      6.0923988816445662e-001 -2.0650658811700365e-002
      9.2272766721329980e-001 -4.8939565737566325e-002
      5.7746981348579152e-001 -3.2138308790679568e-002
      4.9046446291765508e-002 -1.4079371074619214e-002
      1.7489058478227978e-001 6.2021314667026456e-002
      1.3231050539641171e-002 -8.4054945309949183e-002
      -1.1928285698172327e+000 -6.3171977727357609e-001
      2.9510115691050537e-001 -2.4558384697470074e-002
      1.2836745467426788e-001 -1.6334219815358192e-001
      3.6245382229508250e-001 1.6614742940853109e-002
      2.2733285262773079e-001 8.4895575496119771e-002
      4.0087300079903126e-001 -9.9941474341510503e-002
      6.1570441017987243e-001 -1.6236901046143015e-001
      1.8405189996924523e-001 -6.2200955215184972e-001
      -2.2900839751270452e-001 1.2814538694727895e-001
      1.4455413003536595e-002 4.3961908294087398e-001
      -8.5695129886053978e-001 3.9446408731709509e-001
      -1.0887367718806555e+000 -9.2298018890401411e-003
      -9.5282617025457939e-001 -2.1645167587565470e-001
      -9.0512420627556656e-002 8.1188662217918039e-002
      -3.3361266333962303e-001 -1.7122686588065279e-002
      -1.1634776505551526e-001 1.3751253496828145e-001
      4.5596728421026955e-001 5.1308368875028632e-001
      -1.8889944401600184e-001 4.7379414632615396e-001
      -7.8052288700466277e-001 4.9127684206569255e-001
      -1.3347800568457115e+000 -3.6190730570664409e-002
      -9.5767028005580634e-001 -2.7173230624805500e-001
      -3.3947431046341375e-001 1.3475579851391445e-001
      -6.7703747786879098e-001 3.7489294786281761e-002
      -2.9374464031352798e-001 4.7047741183975167e-001
      6.8712371956567442e-001 5.2633550445505184e-001
      -1.9473553434152654e-001 5.8436861803871043e-001
      -9.7477643573939354e-001 6.5524567157616209e-001
      -1.1527155051462006e+000 -1.8519836077420530e-002
      -1.1053484511510694e+000 -3.0783290189552037e-001
      -3.3677758812092146e-001 1.0407806954961625e-001
      -8.2371102828123799e-001 1.1329008143893367e-001
      -3.7256158111737980e-001 5.3687780911383776e-001
      -2.4568409016318637e-002 -1.4518590195232287e-003
      1.4765813183069545e-002 3.2743672477017322e-001
      -1.3084971348193813e-001 3.4746207288759967e-001
      -4.3075186273577076e-001 -2.6776314368681775e-002
      -1.5526257363098386e-001 -1.3249327395113342e-001
      1.1112298612778362e-002 -2.3985882499591233e-002
      -4.8638743326784320e-002 -1.8759944177886793e-002
      -1.7133778416459414e-001 3.8804755557553298e-002
      1.0950149737665322e+000 2.9590336405047896e-001
      -1.8497028637749685e-001 1.9753095717329605e-001
      2.1632805104495892e-001 3.4052069168367355e-001
      3.9443316232029857e-001 -6.7247496101331336e-002
      1.1820109623736470e-001 -1.3033760703915620e-001
      -1.9531274975991111e-001 2.9064551586999089e-002
      -3.4834060765502994e-001 9.6763084249578107e-002
      -1.7945158339937872e-001 3.0142484502960964e-001
      5.8663403060440833e-001 -1.0592450879493048e-001
      -1.0446376705660199e-002 8.1861909657656426e-002
      3.7654023001751713e-001 8.0155317382595084e-002
      1.0190614982222603e+000 -5.1539967595438788e-002
      3.7226266921929785e-001 -5.5190675836275890e-002
      5.8412644123027053e-002 -3.2237158298181632e-003
      9.2384253865924179e-002 4.9683154051747246e-002
      -3.1659607460431331e-002 -9.7754284352252571e-002
      1.1602313384667657e+000 4.9017613942150590e-001
      -1.8616851463399289e-001 2.9932939547190857e-001
      -5.4313834693934926e-001 3.7673200347664215e-001
      -6.1608411084188064e-001 -5.4734444614196825e-002
      -7.1012943492382752e-001 -2.2941128963238280e-001
      -3.2641266814509667e-001 1.1900929654713970e-001
      -6.4568227276364809e-001 1.0381765805295574e-001
      -2.3564649380853536e-001 5.5553182701699211e-001
      1.6633747917269839e-001 1.2568627864467150e-001
      -1.5823379490328842e-002 1.7903446683101976e-001
      -1.4300124806473935e-001 1.3913362075567107e-001
      -3.5015913647761276e-001 -1.6506098293800607e-003
      -2.1575160102836735e-001 -6.2162209663034221e-002
      -5.1924996968548708e-002 -3.5496200604404463e-003
      -1.9439595066578122e-001 2.3066421962839131e-002
      -2.1541153542970932e-002 1.1640619131296953e-001
      4.5273349280636999e-001 4.0911016648238252e-001
      -1.3238886019683382e-001 4.0652097683841759e-001
      -6.3608725916074549e-001 3.7228182428058237e-001
      -9.8863618756410354e-001 -1.8681692253826983e-002
      -7.7974321419359860e-001 -2.6533201056304917e-001
      -2.8655534787015402e-001 1.3316128316765427e-001
      -5.4032734758609069e-001 2.1086234200297944e-002
      -2.5216536793913019e-001 4.1425116869255929e-001
      -2.0717669231847688e-001 -5.9388710301894437e-002
      5.3919553342118336e-002 1.0468269839336143e-001
      -1.7593088750604796e-001 9.3145131920478338e-002
      -5.3526162061866822e-001 2.7623881775728183e-002
      -1.7036571117596369e-001 -6.6933630335808667e-002
      6.2114540080359687e-002 1.1273913083626805e-002
      -3.8504550630810402e-002 1.7261690636206747e-002
      -5.0285045968481094e-002 -7.4486667616596683e-002
      1.0567440463575528e+000 4.1159127253846989e-001
      -1.7041585094867168e-001 1.3971186097455759e-001
      -1.3412245491831651e-001 2.4325715290254271e-001
      -4.3603473803956511e-001 -6.6088347107204168e-002
      -2.9676518354236120e-001 -1.5431886417130025e-001
      -3.2553530478867471e-001 1.1958096923406020e-001
      -4.5745586832676510e-001 1.0258629933238837e-001
      -1.9889732310591457e-001 4.9077691677292723e-001
      1.4238445272873119e+000 4.8628949012657247e-001
      -2.4326016123610217e-001 2.4139659098249280e-001
      -3.6764684903792827e-001 4.0104891016546329e-001
      -1.5905903031463445e-001 -5.7491542278347824e-002
      -5.8181874348838958e-001 -2.4126653507199788e-001
      -3.3944480934819160e-001 1.5770606932795003e-001
      -5.9267891096444913e-001 9.4540485377990563e-002
      -2.4579344601104106e-001 5.0228843630555753e-001
      9.8241432670257967e-001 1.2391888767253777e-001
      -9.8337109271307205e-002 3.6201309667875819e-001
      -4.3490193885435047e-001 4.2230422342311252e-001
      2.5715947539173317e-001 -5.7945261878906848e-002
      -4.7069633411295458e-001 -2.4632101072157322e-001
      -1.2192702945619163e-001 1.1433324551155449e-001
      -1.7080719940023714e-001 2.9184001505265230e-002
      -2.4158087581712168e-001 1.6763136544388965e-001
      4.2529576132284891e-001 -5.1049644179195150e-002
      4.7867581554667908e-002 3.7321346340266036e-002
      1.7512834449742262e-001 2.5853227626692586e-002
      -1.5319340301901360e-001 -2.1810391000108239e-004
      1.2569192503485005e-001 -1.0078622992826967e-001
      -1.4745442159540049e-002 3.4516531958030977e-002
      -1.2943230800888514e-003 3.8842411503505203e-002
      -9.1541428594932236e-003 -7.7108142337437863e-003
      6.1722697238264868e-001 1.1352889682461663e-001
      -4.8986709203813227e-002 2.0666243085885333e-001
      1.1539472187151123e-002 9.8993639146119125e-002
      -2.9473805988826224e-001 1.8347936326896866e-002
      -1.1448900567939634e-001 -1.4624673673936520e-001
      -7.9780384315604982e-002 7.4262334017676429e-002
      -1.8010481275113105e-001 6.6203284437930360e-002
      -9.6582586922096619e-002 1.6423452672296926e-001
      8.0257905641768457e-001 2.2566298455002645e-001
      -1.1072207637649704e-001 1.2174001487471449e-001
      3.1865001568307997e-003 1.3347131485854929e-001
      -2.0008408370938588e-001 -3.6699130899873898e-003
      -1.7250854498367138e-001 -1.5425111460685384e-001
      -1.4915102031026967e-001 8.7624116770613505e-002
      -2.5516903287989440e-001 6.2129556886383795e-002
      -1.0382587852104455e-001 2.2466772389751050e-001
      1.4725715155728092e+000 6.0756100031504268e-001
      -2.0806359536008545e-001 1.6153309009665764e-001
      -6.0806445901206152e-001 2.1318215115809158e-001
      -1.1921446741589816e+000 -2.8528117752601376e-002
      -8.8283732902444301e-001 -2.2545604339580927e-001
      -5.1377640754114950e-001 1.6839391180872648e-001
      -7.5987942076451953e-001 8.7206552293853171e-002
      -2.1592182642405594e-001 6.2613314509305629e-001
      5.5805406907715804e-001 -1.2542847829518674e-002
      6.1924762160699386e-003 -1.9114615509023783e-001
      5.5511892934494012e-001 -2.5704515156913965e-001
      7.2236059916192186e-001 -6.9362503496633232e-003
      5.3890776006855157e-001 2.0200478168093703e-002
      -1.2258359048241402e-002 4.5860048673409537e-002
      6.1261562255158664e-002 5.0832552416788669e-002
      6.5787135063685179e-002 2.5702716031205837e-003
      4.9568147377581528e-001 -1.1524931911231555e-001
      1.5479147245838286e-002 1.4356114310246057e-001
      3.2802169895820693e-001 1.5816937945149284e-001
      7.9977201804501274e-001 -7.1122331185515475e-002
      3.2351805993668042e-001 -3.1818483680703585e-002
      3.9842657811303903e-002 -1.8125650493002247e-002
      1.6145770254864433e-001 2.3431518561548695e-002
      -6.2896963301931411e-002 -1.0421771912443882e-001
      2.7265638296925293e-001 -1.9206818581514468e-001
      6.1322705015631460e-002 1.6279088710644357e-001
      1.7788005818847383e-001 6.7105863710650415e-002
      5.6920665621918676e-001 -5.1188938219089479e-002
      1.7584336597210354e-001 -9.1839456308253534e-002
      9.2383951197967926e-002 -1.6122954729247886e-002
      2.9838115087987871e-001 -1.0880452961625021e-002
      -3.1264230135684475e-002 -2.4153046639179040e-001
      4.6554931162771979e-001 -3.6338105127324008e-002
      2.6320767905330111e-003 -5.7118747716348381e-002
      2.6943720144330341e-001 -1.4141101442793150e-001
      5.7019146889416572e-001 -1.5212564589730818e-002
      2.1991173620933294e-001 -1.6196195995623084e-002
      6.4313916576645327e-002 1.0285384429514387e-002
      5.9688049014671202e-002 2.6506000154881981e-002
      3.0670420293405887e-002 -1.2097636158735801e-001
      -7.1726547427697218e-001 -7.7596093476170225e-001
      2.8565314266207881e-001 -4.6325492605724172e-001
      1.1884324277979177e+000 -6.3127283153191949e-001
      1.3267478513000921e+000 -2.1230694877571156e-002
      1.3889436934383095e+000 1.9664838688534300e-001
      5.0675870465804329e-001 -1.5333480504625080e-001
      1.0522029868908787e+000 -6.5920414308424796e-002
      3.1584001927225214e-001 -8.2939614950726126e-001
      7.8164455307727351e-002 -2.8717024049224144e-001
      9.2718238162103284e-002 -7.7110810693187412e-002
      6.3448310482074399e-001 -2.0793065654218945e-001
      8.3124757061112375e-001 9.8397728757642876e-003
      6.9248506446012159e-001 4.9185091078955287e-002
      2.0999092342935222e-001 -4.2163185554923384e-002
      4.3637292471178246e-001 -5.8635152648939910e-003
      1.4516362464915925e-001 -3.2889064278809865e-001
      1.2508674062828221e-001 -3.4398572766315727e-001
      9.5607768143140162e-002 -1.0568978041541179e-001
      7.3690616300003708e-001 -2.7080164392348838e-001
      1.1927583887903017e+000 -3.0141449431356482e-002
      7.9454474797488472e-001 2.4751235110263337e-002
      2.0654722289911490e-001 -4.1371127164314438e-002
      5.0986843608087051e-001 1.7509726829227452e-003
      9.2167116737579005e-002 -3.5646680733897246e-001
      9.8989173867374181e-001 1.1852739033331418e-001
      -1.5173788060659799e-001 3.0746078880491834e-001
      -1.0956865519734213e-001 1.6374620143874596e-001
      6.7124016410415932e-001 -7.6827843205104539e-003
      -1.4839895987155985e-001 -2.1238024265855548e-001
      -9.4239570922651603e-002 6.5148470742883505e-002
      -1.1410342563198167e-001 3.4666811575859324e-002
      -1.6630487326205709e-001 1.3534817762293355e-001
      8.7007923260213482e-001 8.7524316960888249e-002
      -5.7797370476259650e-002 2.4213110666427726e-001
      2.0088819263359797e-002 5.6075923237047166e-002
      7.5873657404581463e-001 1.7214859392929192e-002
      1.6636965713531529e-002 -2.0668696397955238e-001
      -6.7100235566948538e-002 7.5009650059519262e-002
      2.2975240806256285e-002 1.3491531490322043e-002
      -1.0205566926640619e-001 6.9556327585279465e-002
      1.5208097307639379e+000 4.9267512345632303e-001
      -2.2963841308321567e-001 4.7000505699987305e-001
      -8.0207889375234653e-001 3.9750037130855820e-001
      -3.7074736995545149e-001 -1.1010810930451996e-002
      -9.4827357243653487e-001 -3.2959899631732942e-001
      -3.9189390468775981e-001 1.2681811770930199e-001
      -6.6126298830174657e-001 7.6613271916358958e-002
      -2.8176884326749085e-001 4.9285904395056990e-001
      7.2626114500450512e-001 4.4820406704147120e-001
      -1.5290137845368110e-001 -3.3844471181009494e-001
      2.2168230629508834e-003 -2.2383203115421529e-001
      -1.0568983421946106e-001 3.4762393089551286e-002
      -3.3761783857370214e-001 5.8532716727757172e-002
      -3.6172255480525878e-001 1.6823169360635726e-001
      -6.1437968984575886e-001 -7.2231352385437077e-003
      -5.6700796903336815e-003 4.6794378119919527e-001</_>
    <_>
      1.9109898206172299e-001 -9.5292945741697810e-001
      1.5254965283503967e+000 -1.7606107642626809e+000
      -4.4795862698708883e-001 8.4341166827901448e-001
      9.6212836218643083e-001 -1.9422012098628103e+000
      -1.7753905769068472e+000 2.3234779701130961e+000
      1.5302270483076605e+000 -1.3796468654866305e+000
      -3.0364112488470809e+000 2.8875127958465443e+000
      6.5086209119976746e-001 8.3741223824927213e-001
      -2.3925090323790195e+000 2.3459296347261995e+000
      -1.5715947189277455e+000 -5.3972425573583518e-002
      -1.9878562547088154e+000 2.9169548190999567e-001
      1.2472949911836642e+000 5.2920522239291212e-001
      -1.9995343564182595e+000 2.0495031535623740e+000
      -6.4171153891735089e-001 -1.1656796881650513e+000
      -1.2995454196906948e+000 3.1790398890954169e-001
      1.2644492721543676e+000 -2.2251424588050339e+000
      9.3027013219462173e-001 -1.1687357162674870e+000</_></weights></DigitOCR>
</opencv_storage>
